{"sizes":[6,5,3,0],"layers":[{"0":{},"1":{},"2":{},"3":{},"4":{},"5":{}},{"0":{"bias":0.08076569437980652,"weights":{"0":-0.028476862236857414,"1":-0.049817364662885666,"2":-0.009345652535557747,"3":-0.04060189798474312,"4":-0.09597223252058029,"5":0.1274539977312088}},"1":{"bias":-0.11436381191015244,"weights":{"0":0.14432618021965027,"1":0.08390989154577255,"2":-0.08648905158042908,"3":0.1531945765018463,"4":-0.13102295994758606,"5":0.004506221041083336}},"2":{"bias":-0.0930553525686264,"weights":{"0":0.06961841881275177,"1":-0.06101901829242706,"2":-0.10257631540298462,"3":-0.060789428651332855,"4":-0.05210856348276138,"5":0.13630078732967377}},"3":{"bias":0.036583513021469116,"weights":{"0":-0.06405859440565109,"1":-0.09769703447818756,"2":-0.0416363961994648,"3":0.02444075047969818,"4":-0.10555749386548996,"5":-0.12853944301605225}},"4":{"bias":-0.16957107186317444,"weights":{"0":0.02463853918015957,"1":-0.197918102145195,"2":-0.0668151006102562,"3":-0.04411982372403145,"4":-0.18390387296676636,"5":-0.0849539190530777}}},{"0":{"bias":-0.08349957317113876,"weights":{"0":-0.01726769283413887,"1":0.1983678638935089,"2":-0.19175101816654205,"3":-0.09408064931631088,"4":-0.12533758580684662}},"1":{"bias":-0.09328607469797134,"weights":{"0":-0.10837820172309875,"1":0.03882424905896187,"2":-0.06702661514282227,"3":-0.17912326753139496,"4":0.1797473281621933}},"2":{"bias":-0.17531581223011017,"weights":{"0":0.08607164770364761,"1":0.10280382633209229,"2":-0.1572650671005249,"3":-0.19205909967422485,"4":-0.06052163615822792}}},{}],"outputLookup":true,"inputLookup":false,"activation":"sigmoid","trainOpts":{"iterations":20000,"errorThresh":0.005,"log":false,"logPeriod":10,"learningRate":0.3,"momentum":0.1,"callbackPeriod":10,"beta1":0.9,"beta2":0.999,"epsilon":1e-8}}